{
  "model_name": "logistic",
  "feature_names": [
    "adx",
    "atr_pct",
    "body_pct",
    "btc_momentum_4h",
    "btc_vs_ema50",
    "close_vs_ema20",
    "close_vs_ema200",
    "close_vs_ema50",
    "daily_range",
    "ema20_vs_ema50",
    "ema50_vs_ema200",
    "lower_wick_pct",
    "macd_hist_norm",
    "market_vol_24h",
    "rsi",
    "slope",
    "upper_wick_pct",
    "vol_x",
    "is_bull_day",
    "hour_sin",
    "hour_cos",
    "dow_sin",
    "dow_cos",
    "signal_trend",
    "signal_strong_trend",
    "signal_retest",
    "signal_breakout",
    "signal_impulse_speed",
    "signal_impulse",
    "signal_alignment",
    "tf_15m",
    "tf_1h",
    "seq_last_close_norm",
    "seq_mean_close_norm",
    "seq_trend_close_norm",
    "seq_tail_close_norm",
    "seq_last_vol_x",
    "seq_mean_vol_x",
    "seq_trend_vol_x",
    "seq_tail_vol_x",
    "seq_last_slope",
    "seq_mean_slope",
    "seq_trend_slope",
    "seq_tail_slope",
    "seq_last_adx",
    "seq_mean_adx",
    "seq_trend_adx",
    "seq_tail_adx",
    "seq_last_rsi",
    "seq_mean_rsi",
    "seq_trend_rsi",
    "seq_tail_rsi",
    "seq_last_macd_hist_norm",
    "seq_mean_macd_hist_norm",
    "seq_trend_macd_hist_norm",
    "seq_tail_macd_hist_norm",
    "seq_last_atr_pct",
    "seq_mean_atr_pct",
    "seq_trend_atr_pct",
    "seq_tail_atr_pct"
  ],
  "scaler_mean": [
    26.447586975914305,
    0.6879855486173063,
    0.42132970561998295,
    0.0,
    0.7740436663693152,
    1.1306344335414786,
    1.90955098126673,
    1.6750958073148967,
    5.500433942908124,
    0.5353462979482603,
    0.22355405887600338,
    0.18339799286351455,
    0.13407931846565566,
    0.0,
    64.6706244424621,
    0.5069871097234615,
    0.309642239072257,
    1.9285727029437971,
    0.7457627118644068,
    0.16708545298060667,
    -0.12837530552947032,
    0.6617358090427079,
    -0.03195900574305952,
    0.19580731489741302,
    0.012934879571810883,
    0.16280107047279216,
    0.06824264049955397,
    0.14942016057091884,
    0.006244424620874219,
    0.4045495093666369,
    0.6891168599464763,
    0.31088314005352363,
    1.0,
    0.9869421119759149,
    0.02135135548617305,
    0.9979710080285449,
    1.9285727029437971,
    1.1228533452274745,
    0.9826764942016056,
    1.5454473684210528,
    0.5069871097234615,
    0.20898895851917948,
    0.48968278322925946,
    0.4626803300624446,
    26.447586975914305,
    23.960056868867103,
    1.8822167707404134,
    25.712161760332993,
    64.6706244424621,
    56.69317484388943,
    14.563211418376442,
    63.75905441570034,
    0.13407931846565566,
    0.05103373800178412,
    0.15568996253345216,
    0.1240670040142731,
    0.6879855486173063,
    0.6520823416592332,
    0.038732649420160574,
    0.6725933541480815
  ],
  "scaler_scale": [
    8.92324383193599,
    0.4103240091503068,
    0.4749353803463487,
    1.0,
    1.1454287197242994,
    0.9260803543160779,
    2.391362424482901,
    1.3425669819015809,
    3.591133183659077,
    0.5311096415388599,
    1.5036174607739696,
    0.25182039055535427,
    0.11930198007899988,
    1.0,
    6.180774157886948,
    0.37430804400888135,
    0.6009566919930152,
    1.3997392507862079,
    0.4354316128361064,
    0.6124034532202748,
    0.7619476640927216,
    0.5258460265458749,
    0.5334513073827988,
    0.39682087940288313,
    0.11299366558472629,
    0.3691840759373411,
    0.25216181811924065,
    0.3565021405067369,
    0.0787745630392733,
    0.4908046493645321,
    0.46285506725537917,
    0.46285506725537917,
    1.0,
    0.009950955963653516,
    0.01580321622810998,
    0.0042860903656241935,
    1.3997392507862079,
    0.28781374716946434,
    1.66372823468288,
    0.8726603015806701,
    0.37430804400888135,
    0.23472081262163835,
    0.5122745427699206,
    0.3445653357374798,
    8.92324383193599,
    7.776518310522893,
    9.787531739766445,
    8.791383574350146,
    6.180774157886948,
    5.213269298913006,
    10.13369418965427,
    5.60514868324093,
    0.11930198007899988,
    0.08125424272597591,
    0.2034529109414661,
    0.11301437630305596,
    0.4103240091503068,
    0.3808583388616648,
    0.19937540341102494,
    0.39670153559531485
  ],
  "threshold": 0.5,
  "positive_ret_threshold": 0.0,
  "model": {
    "type": "logistic",
    "weights": [
      -0.004971069164062414,
      -0.014382138321119143,
      0.026940428815938753,
      0.0,
      -0.1308699732062535,
      0.012706163410077137,
      0.024375969690983254,
      0.018484712031185076,
      -0.038737182316538034,
      0.02261480461886443,
      0.021606672482397685,
      -0.07883225100222852,
      0.036745218462737324,
      0.0,
      -0.027308865194798533,
      0.020275681444292887,
      0.02165265914621133,
      -0.04364976446035156,
      -0.2263372078220819,
      0.24653978284503011,
      0.06998667670472528,
      0.2419900763345786,
      0.13119126076009488,
      0.005392908112378355,
      0.012328140912363946,
      0.008477355634755832,
      -0.044449448203125595,
      0.004518942327501948,
      0.04196780074263184,
      -0.000756470385152412,
      -0.02030791903711262,
      0.020307919037112595,
      0.0,
      -0.024332491433302513,
      -0.05910973608177146,
      0.08406460521542114,
      -0.04364976446035156,
      0.008633022610039526,
      -0.002233877474523108,
      -0.004032187397021599,
      0.020275681444292887,
      0.0002127707894491072,
      -0.20005693668366695,
      -0.0013658531951809638,
      -0.004971069164062414,
      -0.0648522829649877,
      0.010285762090619184,
      -0.014158329105508816,
      -0.027308865194798533,
      -0.006045417048782527,
      -0.012546462307037869,
      0.0782008013697622,
      0.036745218462737324,
      -0.11316907579799707,
      -0.0650861811807022,
      0.016651988854270865,
      -0.014382138321119143,
      0.003146442047843486,
      0.033533459140063844,
      -0.012636633038804787
    ],
    "bias": -0.39922283932054264
  },
  "segment_model_payloads": {
    "alignment|bull": {
      "model_name": "logistic",
      "feature_names": [
        "adx",
        "atr_pct",
        "body_pct",
        "btc_momentum_4h",
        "btc_vs_ema50",
        "close_vs_ema20",
        "close_vs_ema200",
        "close_vs_ema50",
        "daily_range",
        "ema20_vs_ema50",
        "ema50_vs_ema200",
        "lower_wick_pct",
        "macd_hist_norm",
        "market_vol_24h",
        "rsi",
        "slope",
        "upper_wick_pct",
        "vol_x",
        "is_bull_day",
        "hour_sin",
        "hour_cos",
        "dow_sin",
        "dow_cos",
        "signal_trend",
        "signal_strong_trend",
        "signal_retest",
        "signal_breakout",
        "signal_impulse_speed",
        "signal_impulse",
        "signal_alignment",
        "tf_15m",
        "tf_1h",
        "seq_last_close_norm",
        "seq_mean_close_norm",
        "seq_trend_close_norm",
        "seq_tail_close_norm",
        "seq_last_vol_x",
        "seq_mean_vol_x",
        "seq_trend_vol_x",
        "seq_tail_vol_x",
        "seq_last_slope",
        "seq_mean_slope",
        "seq_trend_slope",
        "seq_tail_slope",
        "seq_last_adx",
        "seq_mean_adx",
        "seq_trend_adx",
        "seq_tail_adx",
        "seq_last_rsi",
        "seq_mean_rsi",
        "seq_trend_rsi",
        "seq_tail_rsi",
        "seq_last_macd_hist_norm",
        "seq_mean_macd_hist_norm",
        "seq_trend_macd_hist_norm",
        "seq_tail_macd_hist_norm",
        "seq_last_atr_pct",
        "seq_mean_atr_pct",
        "seq_trend_atr_pct",
        "seq_tail_atr_pct"
      ],
      "scaler_mean": [
        25.1984782608696,
        0.6372667874396131,
        0.2959345410628016,
        0.0,
        1.294350241545892,
        0.803429951690822,
        1.2125501207729468,
        1.2843171497584513,
        4.863546497584544,
        0.476148550724638,
        -0.07196159420289848,
        0.17536678743961367,
        0.12153887560386469,
        0.0,
        62.64775362318841,
        0.4884521739130431,
        0.23309178743961362,
        1.4373905797101407,
        1.0,
        0.17678211892852602,
        -0.26319636004592856,
        0.7762564134014798,
        0.025612598614023614,
        0.0,
        0.0,
        0.0,
        0.0,
        0.0,
        0.0,
        1.0,
        0.6135265700483091,
        0.3864734299516908,
        1.0,
        0.9898624126811608,
        0.018414240338164262,
        1.0001828216586155,
        1.4373905797101407,
        1.116436014492754,
        0.444290096618358,
        1.3267778985507244,
        0.4884521739130431,
        0.19506565821256044,
        0.5222699275362318,
        0.4864721417069241,
        25.1984782608696,
        21.70340277777778,
        3.321533816425121,
        24.355446859903406,
        62.64775362318841,
        56.90751811594207,
        13.126908212560398,
        63.78967793880832,
        0.12153887560386469,
        0.05896130785024162,
        0.1523759311594202,
        0.13393549033816432,
        0.6372667874396131,
        0.6208521980676324,
        0.025596135265700492,
        0.6325048711755233
      ],
      "scaler_scale": [
        8.86840315366325,
        0.29783978480286794,
        0.3007132020209901,
        1.0,
        0.46031207630971405,
        0.5168102882864678,
        1.6875797320830996,
        0.7539225390736614,
        2.099530754584048,
        0.3312289393692486,
        1.4083842963417341,
        0.20558141098322394,
        0.08544794102434379,
        1.0,
        6.129859663552993,
        0.2852888967711118,
        0.25642002111231443,
        0.8007777111589929,
        1.0,
        0.5641508439208699,
        0.7623710276427667,
        0.350115308611872,
        0.5236308299946887,
        1.0,
        1.0,
        1.0,
        1.0,
        1.0,
        1.0,
        1.0,
        0.48694118525040364,
        0.4869411852504054,
        1.0,
        0.006236756394034397,
        0.012176730604178211,
        0.0029235805421648597,
        0.8007777111589929,
        0.258051385209793,
        1.2067824884455485,
        0.5717213738241949,
        0.2852888967711118,
        0.17377997053393612,
        0.43178015642188183,
        0.29266665821086824,
        8.86840315366325,
        6.368131312240026,
        9.385676191673328,
        8.56932823316278,
        6.129859663552993,
        4.9898777377038215,
        10.053366386765726,
        5.683106247642023,
        0.08544794102434379,
        0.07771031723876438,
        0.16400550757908042,
        0.09423890032561583,
        0.29783978480286794,
        0.2818917479886876,
        0.17267041868102154,
        0.29574219652479566
      ],
      "threshold": 0.55,
      "positive_ret_threshold": 0.0,
      "model": {
        "type": "logistic",
        "weights": [
          0.04318434935666502,
          -0.0032368516099027913,
          0.07080392650266229,
          0.0,
          -0.09025900495473561,
          0.04658947176280605,
          0.060788312612148926,
          0.0571500351947884,
          -0.050542630136649565,
          0.055259747993137744,
          0.04357735494097506,
          -0.06024423271080024,
          0.08796809574378402,
          0.0,
          -0.061076608118341286,
          0.04105986232417182,
          -0.0014911270352707983,
          -0.03639009898973728,
          0.0,
          0.18216764955614045,
          -0.06882561803254367,
          0.2837425081806741,
          0.11350682772775271,
          0.0,
          0.0,
          0.0,
          0.0,
          0.0,
          0.0,
          0.0,
          -0.047921209339818416,
          0.04792120933981824,
          0.0,
          -0.0642506460988997,
          -0.11266489923265796,
          0.0577136642858298,
          -0.03639009898973728,
          0.03959575911030365,
          0.014443066290311942,
          -0.17531305944919343,
          0.04105986232417182,
          -0.08453127917171022,
          -0.2419952721909577,
          -0.025697803934669066,
          0.04318434935666502,
          0.022543422181380144,
          -0.02021030232565838,
          0.031282826501791074,
          -0.061076608118341286,
          -0.011068457594186143,
          -0.10821398625213698,
          0.0544393174724754,
          0.08796809574378402,
          -0.22453895000566004,
          -0.008107167444548256,
          0.04489206261093648,
          -0.0032368516099027913,
          0.028455510545974973,
          0.03368713380346683,
          0.001834303660001703
        ],
        "bias": -0.5227495193058398
      }
    },
    "impulse_speed|bull": {
      "model_name": "logistic",
      "feature_names": [
        "adx",
        "atr_pct",
        "body_pct",
        "btc_momentum_4h",
        "btc_vs_ema50",
        "close_vs_ema20",
        "close_vs_ema200",
        "close_vs_ema50",
        "daily_range",
        "ema20_vs_ema50",
        "ema50_vs_ema200",
        "lower_wick_pct",
        "macd_hist_norm",
        "market_vol_24h",
        "rsi",
        "slope",
        "upper_wick_pct",
        "vol_x",
        "is_bull_day",
        "hour_sin",
        "hour_cos",
        "dow_sin",
        "dow_cos",
        "signal_trend",
        "signal_strong_trend",
        "signal_retest",
        "signal_breakout",
        "signal_impulse_speed",
        "signal_impulse",
        "signal_alignment",
        "tf_15m",
        "tf_1h",
        "seq_last_close_norm",
        "seq_mean_close_norm",
        "seq_trend_close_norm",
        "seq_tail_close_norm",
        "seq_last_vol_x",
        "seq_mean_vol_x",
        "seq_trend_vol_x",
        "seq_tail_vol_x",
        "seq_last_slope",
        "seq_mean_slope",
        "seq_trend_slope",
        "seq_tail_slope",
        "seq_last_adx",
        "seq_mean_adx",
        "seq_trend_adx",
        "seq_tail_adx",
        "seq_last_rsi",
        "seq_mean_rsi",
        "seq_trend_rsi",
        "seq_tail_rsi",
        "seq_last_macd_hist_norm",
        "seq_mean_macd_hist_norm",
        "seq_trend_macd_hist_norm",
        "seq_tail_macd_hist_norm",
        "seq_last_atr_pct",
        "seq_mean_atr_pct",
        "seq_trend_atr_pct",
        "seq_tail_atr_pct"
      ],
      "scaler_mean": [
        24.88384083044985,
        1.0549608996539805,
        0.810782352941176,
        0.0,
        1.3424882352941183,
        2.3903681660899663,
        4.235285467128022,
        3.431240830449828,
        9.99305432525952,
        1.010474394463668,
        0.76290830449827,
        0.2441266435986159,
        0.24124710726643595,
        0.0,
        69.76581314878898,
        0.8540602076124574,
        0.5414754325259522,
        2.5392709342560575,
        1.0,
        0.31888187007413227,
        -0.09018293802176117,
        0.8505955416481272,
        -0.015381609941922116,
        0.0,
        0.0,
        0.0,
        0.0,
        1.0,
        0.0,
        0.0,
        0.4186851211072664,
        0.5813148788927336,
        1.0,
        0.9740075413494812,
        0.037410785467128026,
        0.9933433068050748,
        2.5392709342560575,
        1.1686309688581307,
        1.4230110726643606,
        1.9644739331026517,
        0.8540602076124574,
        0.3400253633217994,
        0.6752024221453287,
        0.7006815455594,
        24.88384083044985,
        22.514510380622824,
        1.9654671280276803,
        23.859111880046143,
        69.76581314878898,
        57.55626470588237,
        17.18712802768166,
        66.7355132641292,
        0.24124710726643595,
        0.04124669204152247,
        0.2759547197231837,
        0.18284542906574397,
        1.0549608996539805,
        0.9862666435986162,
        0.07600968858131488,
        1.016696193771626
      ],
      "scaler_scale": [
        10.603228247183134,
        0.5609741312003674,
        0.6904577931221032,
        1.0,
        0.5076528146357633,
        1.2488920919461792,
        3.490476455683102,
        1.9002360907573064,
        4.994342093008533,
        0.8098689692183758,
        2.1865996868786204,
        0.36692413245615185,
        0.1657040339114227,
        1.0,
        5.635611508288436,
        0.5357812760373454,
        0.7676023656035565,
        1.4380745978502547,
        1.0,
        0.643914686299838,
        0.6896051532545057,
        0.28466168387840823,
        0.4418352140056596,
        1.0,
        1.0,
        1.0,
        1.0,
        1.0,
        1.0,
        1.0,
        0.4933435825777616,
        0.4933435825777616,
        1.0,
        0.013349625975964396,
        0.02190922500376028,
        0.005511191287167961,
        1.4380745978502547,
        0.28375473680925783,
        1.6781778112921713,
        1.1472777839100445,
        0.5357812760373454,
        0.3407822293183121,
        0.7335329901519032,
        0.4878536487637905,
        10.603228247183134,
        9.91329665748329,
        8.333178020638945,
        10.521314892624344,
        5.635611508288436,
        5.227628684298423,
        9.630298625347335,
        5.547027770406095,
        0.1657040339114227,
        0.080897243308363,
        0.27453886690415674,
        0.15370605089573658,
        0.5609741312003674,
        0.5584243482988461,
        0.29286163940831716,
        0.543352305452166
      ],
      "threshold": 0.35,
      "positive_ret_threshold": 0.0,
      "model": {
        "type": "logistic",
        "weights": [
          -0.15530626331494582,
          -0.011657465868675197,
          -0.06506147482405944,
          0.0,
          -0.08893814619372689,
          -0.06972072177210566,
          0.06932413565268378,
          -0.017639301481828563,
          -0.038198890337867455,
          0.06525190805459011,
          0.11397847647478333,
          -0.20512183177368906,
          -0.009198136943958077,
          0.0,
          0.03430739408369751,
          0.01750679517966482,
          0.2319999233352739,
          0.04522297512548037,
          0.0,
          0.052611458565465036,
          -0.08436915131195644,
          0.17500931087654464,
          0.08539747650784522,
          0.0,
          0.0,
          0.0,
          0.0,
          0.0,
          0.0,
          0.0,
          0.06257868811862712,
          -0.06257868811862712,
          0.0,
          0.006956922917050946,
          -0.053556206096583084,
          0.17148921513415316,
          0.04522297512548037,
          -0.08472031371684689,
          -0.015262853071247372,
          -0.006346631523643335,
          0.01750679517966482,
          0.03860225260729075,
          -0.16197489428681638,
          0.08966357414594048,
          -0.15530626331494582,
          -0.15834080554045832,
          0.06024544741071142,
          -0.12758501886642915,
          0.03430739408369751,
          -0.011092395679764387,
          -0.11089439816405175,
          -0.003780043079031146,
          -0.009198136943958077,
          -0.10500795141046339,
          -0.021323789854024274,
          0.0446244041004128,
          -0.011657465868675197,
          -0.015240606063344006,
          0.014400073894304347,
          -0.026053775933273685
        ],
        "bias": -0.49594196137282287
      }
    },
    "impulse_speed|nonbull": {
      "model_name": "logistic",
      "feature_names": [
        "adx",
        "atr_pct",
        "body_pct",
        "btc_momentum_4h",
        "btc_vs_ema50",
        "close_vs_ema20",
        "close_vs_ema200",
        "close_vs_ema50",
        "daily_range",
        "ema20_vs_ema50",
        "ema50_vs_ema200",
        "lower_wick_pct",
        "macd_hist_norm",
        "market_vol_24h",
        "rsi",
        "slope",
        "upper_wick_pct",
        "vol_x",
        "is_bull_day",
        "hour_sin",
        "hour_cos",
        "dow_sin",
        "dow_cos",
        "signal_trend",
        "signal_strong_trend",
        "signal_retest",
        "signal_breakout",
        "signal_impulse_speed",
        "signal_impulse",
        "signal_alignment",
        "tf_15m",
        "tf_1h",
        "seq_last_close_norm",
        "seq_mean_close_norm",
        "seq_trend_close_norm",
        "seq_tail_close_norm",
        "seq_last_vol_x",
        "seq_mean_vol_x",
        "seq_trend_vol_x",
        "seq_tail_vol_x",
        "seq_last_slope",
        "seq_mean_slope",
        "seq_trend_slope",
        "seq_tail_slope",
        "seq_last_adx",
        "seq_mean_adx",
        "seq_trend_adx",
        "seq_tail_adx",
        "seq_last_rsi",
        "seq_mean_rsi",
        "seq_trend_rsi",
        "seq_tail_rsi",
        "seq_last_macd_hist_norm",
        "seq_mean_macd_hist_norm",
        "seq_trend_macd_hist_norm",
        "seq_tail_macd_hist_norm",
        "seq_last_atr_pct",
        "seq_mean_atr_pct",
        "seq_trend_atr_pct",
        "seq_tail_atr_pct"
      ],
      "scaler_mean": [
        25.282983870967744,
        1.0163709677419352,
        0.8565701612903234,
        0.0,
        -0.7854758064516125,
        2.4784491935483874,
        3.7252048387096766,
        3.2683806451612902,
        8.392126612903226,
        0.7633943548387097,
        0.4203725806451615,
        0.28908467741935506,
        0.27456815322580636,
        0.0,
        69.61524193548385,
        0.8279733870967745,
        0.4591991935483872,
        2.6171838709677413,
        0.0,
        -0.11416925530677201,
        0.10075342611439929,
        0.14023835345469549,
        -0.00303934419348209,
        0.0,
        0.0,
        0.0,
        0.0,
        1.0,
        0.0,
        0.0,
        0.5806451612903226,
        0.41935483870967744,
        1.0,
        0.9732569004032259,
        0.03470183064516129,
        0.9928916451612905,
        2.6171838709677413,
        1.1897183467741939,
        1.7242846774193543,
        2.1085470430107534,
        0.8279733870967745,
        0.2524279435483871,
        0.7169298387096774,
        0.6247427419354837,
        25.282983870967744,
        24.63308467741934,
        -1.1799193548387095,
        24.233118279569904,
        69.61524193548385,
        55.48283870967741,
        18.758870967741938,
        66.42774193548384,
        0.27456815322580636,
        0.04278572016129031,
        0.289575177419355,
        0.20048804301075254,
        1.0163709677419352,
        0.9087665322580647,
        0.09785564516129036,
        0.9711846774193553
      ],
      "scaler_scale": [
        9.756537426163387,
        0.517670307144483,
        0.7894769569028719,
        1.0,
        1.2216859786965337,
        1.3764589206515692,
        3.5690414234857566,
        2.0622698281996974,
        5.216305281412174,
        0.8136927739456448,
        1.7873928356930626,
        0.4309243047900255,
        0.16942110721089396,
        1.0,
        5.428038537153366,
        0.5122287140540158,
        0.4559589151865102,
        1.4665946076291678,
        1.0,
        0.714123605370452,
        0.6832580804656564,
        0.7168033466687601,
        0.6830204453833387,
        1.0,
        1.0,
        1.0,
        1.0,
        1.0,
        1.0,
        1.0,
        0.49345350131543075,
        0.49345350131543075,
        1.0,
        0.013881853239421111,
        0.021388019996024674,
        0.0059271903213303535,
        1.4665946076291678,
        0.32598502548709707,
        1.8090941461193453,
        1.2947376109263107,
        0.5122287140540158,
        0.43110741211985937,
        0.7942330915458166,
        0.44048888180307505,
        9.756537426163387,
        9.19795162498979,
        9.986399177976184,
        9.647597354822443,
        5.428038537153366,
        5.334337228516193,
        11.148598654140017,
        5.384874867480267,
        0.16942110721089396,
        0.11837365944543825,
        0.33681020424323815,
        0.1556826334371514,
        0.517670307144483,
        0.47825632844664484,
        0.23979494139732188,
        0.4977149878844921
      ],
      "threshold": 0.5,
      "positive_ret_threshold": 0.0,
      "model": {
        "type": "logistic",
        "weights": [
          0.004086908215206838,
          0.02889975048707724,
          0.027506837846932423,
          0.0,
          -0.17021425600190945,
          -0.013339492424494028,
          0.026631215776029577,
          -0.01386905428701573,
          -0.2772601166239387,
          -0.023239282595875956,
          0.0640779473899935,
          -0.007849560747883814,
          -0.023807829925100277,
          0.0,
          0.23555226608962374,
          0.04196448354488794,
          0.015811096698722747,
          -0.022732882750242243,
          0.0,
          0.06254270260965489,
          0.2516468101464201,
          0.187941343332741,
          0.3502461400141686,
          0.0,
          0.0,
          0.0,
          0.0,
          0.0,
          0.0,
          0.0,
          -0.19705406445320053,
          0.1970540644532006,
          0.0,
          0.0583589710398207,
          -0.27745202749565356,
          -0.007935758589409488,
          -0.022732882750242243,
          -0.05943110933607,
          -0.21395070213601164,
          -0.14787056457091238,
          0.04196448354488794,
          0.03925395864582814,
          -0.2496245240233058,
          0.05049728658808958,
          0.004086908215206838,
          0.016524790908670678,
          -0.021861443640239685,
          -0.00551676870710406,
          0.23555226608962374,
          -0.12741773876070295,
          0.06048784321482639,
          -0.0020590680786651714,
          -0.023807829925100277,
          -0.05302489488176453,
          -0.28277343897472224,
          -0.0012646439634488738,
          0.02889975048707724,
          0.037658999910903344,
          0.24529640769376349,
          0.05747758857573985
        ],
        "bias": -0.2885505632635394
      }
    },
    "retest|bull": {
      "model_name": "logistic",
      "feature_names": [
        "adx",
        "atr_pct",
        "body_pct",
        "btc_momentum_4h",
        "btc_vs_ema50",
        "close_vs_ema20",
        "close_vs_ema200",
        "close_vs_ema50",
        "daily_range",
        "ema20_vs_ema50",
        "ema50_vs_ema200",
        "lower_wick_pct",
        "macd_hist_norm",
        "market_vol_24h",
        "rsi",
        "slope",
        "upper_wick_pct",
        "vol_x",
        "is_bull_day",
        "hour_sin",
        "hour_cos",
        "dow_sin",
        "dow_cos",
        "signal_trend",
        "signal_strong_trend",
        "signal_retest",
        "signal_breakout",
        "signal_impulse_speed",
        "signal_impulse",
        "signal_alignment",
        "tf_15m",
        "tf_1h",
        "seq_last_close_norm",
        "seq_mean_close_norm",
        "seq_trend_close_norm",
        "seq_tail_close_norm",
        "seq_last_vol_x",
        "seq_mean_vol_x",
        "seq_trend_vol_x",
        "seq_tail_vol_x",
        "seq_last_slope",
        "seq_mean_slope",
        "seq_trend_slope",
        "seq_tail_slope",
        "seq_last_adx",
        "seq_mean_adx",
        "seq_trend_adx",
        "seq_tail_adx",
        "seq_last_rsi",
        "seq_mean_rsi",
        "seq_trend_rsi",
        "seq_tail_rsi",
        "seq_last_macd_hist_norm",
        "seq_mean_macd_hist_norm",
        "seq_trend_macd_hist_norm",
        "seq_tail_macd_hist_norm",
        "seq_last_atr_pct",
        "seq_mean_atr_pct",
        "seq_trend_atr_pct",
        "seq_tail_atr_pct"
      ],
      "scaler_mean": [
        28.860137614678894,
        0.6760486238532109,
        0.3070807339449542,
        0.0,
        1.2570811926605512,
        0.8017784403669724,
        2.0998756880733946,
        1.4256701834862384,
        5.702002752293578,
        0.6172279816513762,
        0.6559857798165138,
        0.19561972477064227,
        0.04870067431192661,
        0.0,
        61.85509174311932,
        0.3660646788990823,
        0.2635844036697249,
        1.4752674311926608,
        1.0,
        0.21830981909221947,
        -0.123446565018637,
        0.8990661585030698,
        -0.14189434273341653,
        0.0,
        0.0,
        1.0,
        0.0,
        0.0,
        0.0,
        0.0,
        0.7247706422018348,
        0.27522935779816515,
        1.0,
        0.9913548412844041,
        0.01749976605504588,
        0.9980180489296633,
        1.4752674311926608,
        1.0323964449541287,
        0.5103628440366974,
        1.2260412844036706,
        0.3660646788990823,
        0.2620445412844039,
        0.2767555045871561,
        0.34846452599388383,
        28.860137614678894,
        26.661286697247714,
        2.338073394495413,
        28.652767584097862,
        61.85509174311932,
        58.224302752293596,
        8.669128440366974,
        60.46859327217129,
        0.04870067431192661,
        0.03838389013761465,
        0.06702817431192662,
        0.046262363914373085,
        0.6760486238532109,
        0.6808740825688074,
        -0.015459174311926598,
        0.6712827217125389
      ],
      "scaler_scale": [
        7.611157519615636,
        0.39000213669484757,
        0.3444688976724626,
        1.0,
        0.43641748325675,
        0.5112105621435348,
        2.2245159987146357,
        0.9216841180517183,
        3.7185276836813204,
        0.4755593730926699,
        1.4587042804575947,
        0.23321320801093146,
        0.050748393836556605,
        1.0,
        2.948360645540222,
        0.21791449166823515,
        0.3147468864167652,
        0.9633052475691798,
        1.0,
        0.5407855860996122,
        0.8029026829821413,
        0.242209513692838,
        0.3359770670915789,
        1.0,
        1.0,
        1.0,
        1.0,
        1.0,
        1.0,
        1.0,
        0.44662977778488433,
        0.44662977778488433,
        1.0,
        0.0054757266090415145,
        0.012566975709452415,
        0.002679122044686949,
        0.9633052475691798,
        0.20864864813085687,
        1.2176959716609277,
        0.5454476955782306,
        0.21791449166823515,
        0.1725505105526826,
        0.3530419655539219,
        0.21670739597305771,
        7.611157519615636,
        7.228217253063411,
        10.26737886538017,
        7.589660601696168,
        2.948360645540222,
        3.28818667333654,
        7.649327407742626,
        2.6980071851964476,
        0.050748393836556605,
        0.08313888138016087,
        0.1514338632695179,
        0.058366749641038045,
        0.39000213669484757,
        0.39654745502120087,
        0.14182952078566263,
        0.3883397590287934
      ],
      "threshold": 0.5,
      "positive_ret_threshold": 0.0,
      "model": {
        "type": "logistic",
        "weights": [
          -0.045979616322634434,
          -0.12470051961992404,
          0.04616519100599317,
          0.0,
          -0.2642019246105915,
          -0.0015565534994501841,
          0.10961814925376495,
          0.02520168657559103,
          0.06072660239696312,
          0.05099261385643963,
          0.15020862088499193,
          -0.053779526292439664,
          0.0373940930607199,
          0.0,
          -0.1886821377952658,
          0.06697541501943945,
          -0.164796251457765,
          -0.07533960587642058,
          0.0,
          0.42096345480793546,
          0.024114281047591665,
          0.1396204994333307,
          0.0365118484126214,
          0.0,
          0.0,
          0.0,
          0.0,
          0.0,
          0.0,
          0.0,
          0.07160977143531809,
          -0.07160977143531809,
          0.0,
          0.037809751587275515,
          -0.09418236267903371,
          0.01073786759797009,
          -0.07533960587642058,
          0.25848274115190356,
          0.18294762144356963,
          -0.08017516457667227,
          0.06697541501943945,
          0.03761909878694249,
          -0.1484083959594575,
          0.038904946184745985,
          -0.045979616322634434,
          0.042696787059460485,
          -0.19434021526321063,
          -0.06620566355917651,
          -0.1886821377952658,
          -0.06422309401965771,
          0.001456715739184837,
          0.1436815504778414,
          0.0373940930607199,
          -0.03367812623841646,
          -0.035117519287411816,
          0.005705773970223314,
          -0.12470051961992404,
          -0.04865961945082167,
          -0.17623069176039094,
          -0.12067423725499822
        ],
        "bias": -0.6178154010842798
      }
    },
    "trend|bull": {
      "model_name": "logistic",
      "feature_names": [
        "adx",
        "atr_pct",
        "body_pct",
        "btc_momentum_4h",
        "btc_vs_ema50",
        "close_vs_ema20",
        "close_vs_ema200",
        "close_vs_ema50",
        "daily_range",
        "ema20_vs_ema50",
        "ema50_vs_ema200",
        "lower_wick_pct",
        "macd_hist_norm",
        "market_vol_24h",
        "rsi",
        "slope",
        "upper_wick_pct",
        "vol_x",
        "is_bull_day",
        "hour_sin",
        "hour_cos",
        "dow_sin",
        "dow_cos",
        "signal_trend",
        "signal_strong_trend",
        "signal_retest",
        "signal_breakout",
        "signal_impulse_speed",
        "signal_impulse",
        "signal_alignment",
        "tf_15m",
        "tf_1h",
        "seq_last_close_norm",
        "seq_mean_close_norm",
        "seq_trend_close_norm",
        "seq_tail_close_norm",
        "seq_last_vol_x",
        "seq_mean_vol_x",
        "seq_trend_vol_x",
        "seq_tail_vol_x",
        "seq_last_slope",
        "seq_mean_slope",
        "seq_trend_slope",
        "seq_tail_slope",
        "seq_last_adx",
        "seq_mean_adx",
        "seq_trend_adx",
        "seq_tail_adx",
        "seq_last_rsi",
        "seq_mean_rsi",
        "seq_trend_rsi",
        "seq_tail_rsi",
        "seq_last_macd_hist_norm",
        "seq_mean_macd_hist_norm",
        "seq_trend_macd_hist_norm",
        "seq_tail_macd_hist_norm",
        "seq_last_atr_pct",
        "seq_mean_atr_pct",
        "seq_trend_atr_pct",
        "seq_tail_atr_pct"
      ],
      "scaler_mean": [
        28.281172839506162,
        0.5861194444444444,
        0.3274234567901233,
        0.0,
        1.3375447530864177,
        1.0925129629629629,
        2.3004811728395085,
        1.695828703703702,
        5.4553311728395055,
        0.595630864197531,
        0.594136111111111,
        0.15931574074074076,
        0.10913886419753085,
        0.0,
        67.41756172839506,
        0.44448549382716046,
        0.32437777777777776,
        1.936533950617286,
        1.0,
        0.3669129499555334,
        -0.27099903783016305,
        0.8868413409337023,
        -0.08125465525067713,
        1.0,
        0.0,
        0.0,
        0.0,
        0.0,
        0.0,
        0.0,
        0.7129629629629629,
        0.28703703703703703,
        1.0,
        0.9876504665123456,
        0.019307629629629633,
        0.9974790946502053,
        1.936533950617286,
        1.1337435493827164,
        0.9558345679012344,
        1.5796598765432106,
        0.44448549382716046,
        0.20291435185185192,
        0.35692499999999994,
        0.39635545267489697,
        28.281172839506162,
        24.56098456790124,
        3.587932098765431,
        27.283940329218094,
        67.41756172839506,
        58.06988580246918,
        14.29351851851851,
        65.33443415637855,
        0.10913886419753085,
        0.022162131018518518,
        0.14361297530864195,
        0.09204377263374479,
        0.5861194444444444,
        0.5683969753086414,
        0.007800000000000006,
        0.5713564814814809
      ],
      "scaler_scale": [
        7.777914196089553,
        0.3001633635838375,
        0.27556161363036236,
        1.0,
        0.4263235345538003,
        0.5605958951610935,
        1.2488175627802895,
        0.8204217812474466,
        2.4506448853936456,
        0.33302504767770036,
        0.8720917265570869,
        0.19950706932091197,
        0.08425163276060141,
        1.0,
        4.374512097579411,
        0.2598752889523925,
        1.1389936248859627,
        1.2198255963766917,
        1.0,
        0.547984540001344,
        0.7011756930823905,
        0.22956754072019236,
        0.39269436112412015,
        1.0,
        1.0,
        1.0,
        1.0,
        1.0,
        1.0,
        1.0,
        0.4523790185298557,
        0.4523790185298557,
        1.0,
        0.006712922850498227,
        0.01255430549376297,
        0.0020934484382160736,
        1.2198255963766917,
        0.2631609224765885,
        1.5173160687165046,
        0.7543508400234967,
        0.2598752889523925,
        0.15149898991803493,
        0.37249432984125935,
        0.24271098526310597,
        7.777914196089553,
        7.159010252438178,
        8.244220967790696,
        7.817356590890665,
        4.374512097579411,
        4.301210053604743,
        9.45797905828412,
        4.5016796425751116,
        0.08425163276060141,
        0.058857872235698674,
        0.16517602178984803,
        0.08024225507445716,
        0.3001633635838375,
        0.27197172480200427,
        0.143450914089407,
        0.2808656437235523
      ],
      "threshold": 0.6000000000000001,
      "positive_ret_threshold": 0.0,
      "model": {
        "type": "logistic",
        "weights": [
          -0.0820238543258206,
          -0.03487599371292607,
          -0.07803981114128046,
          0.0,
          -0.09726926321542503,
          0.04234448945312105,
          0.06540374426449654,
          0.08816241838236956,
          0.004576387123330348,
          0.1416768160549399,
          0.011755913575798133,
          -0.2521461591930943,
          0.08276402243024508,
          0.0,
          -0.15369415938780817,
          0.06402716201188306,
          -0.08962919455090476,
          -0.06053743089193639,
          0.0,
          0.3912145020833248,
          -0.02527809045864998,
          0.5388280963654799,
          0.11682245764788228,
          0.0,
          0.0,
          0.0,
          0.0,
          0.0,
          0.0,
          0.0,
          0.04038941538026991,
          -0.04038941538026995,
          0.0,
          -0.06953726834139476,
          -0.09379333728803135,
          0.20454810464790632,
          -0.06053743089193639,
          0.15708062283607746,
          -0.14538558044608846,
          0.15719549654336964,
          0.06402716201188306,
          0.0931912103874642,
          -0.2818967237510139,
          0.08367905391287514,
          -0.0820238543258206,
          -0.2709454760550271,
          0.21719700275334933,
          -0.10147416863097422,
          -0.15369415938780817,
          -0.11464759957650769,
          -0.07348145855143924,
          0.09611232986533046,
          0.08276402243024508,
          -0.05020256306185843,
          -0.11326569171509825,
          0.09642566505776437,
          -0.03487599371292607,
          0.0024463030899399317,
          0.04785062209225766,
          -0.0066857523268434044
        ],
        "bias": -0.3487800030762971
      }
    }
  }
}